34 17
33 0.22042616 0.279102 0.3129882 0.4866676 -0.8239339 -0.07124537 -0.022524592 0.1762671 -0.29487315 -0.1803698 0.46393684 -0.6178723 -0.7614598 0.48317465 -0.32620865 -0.2813647 -0.31141916
0 0.37770098 -0.41272393 0.1953994 1.0996093 0.58679384 0.42689487 -0.1174905 0.14977226 -0.089612834 0.10644407 0.4166388 -0.59400034 0.22346705 0.13535705 0.2992954 0.190606 -0.022722835
32 -0.012650008 0.61617047 0.4934843 0.3425922 -0.28540966 0.2162925 -0.3849173 -0.016697131 -0.23761527 -0.6016858 0.047899522 -0.5348188 -0.40096283 0.7859681 -0.47260582 -0.22417904 -0.68609494
2 0.39646998 -0.057889543 -0.0019192968 0.8111981 -0.273884 0.0733633 -0.31916532 0.22710699 0.39100114 -0.38924474 0.2693872 -0.5801097 -0.4369076 -0.19093993 -0.057817496 0.11483148 0.4478809
1 0.109774426 0.069671005 0.16656949 1.4012145 -0.12247907 -0.11320281 0.11748711 0.06752112 0.4532234 -0.099016145 0.08771128 -0.64668953 0.1573864 0.1182457 0.28144962 0.47568017 -0.05032763
31 0.7210567 0.9505849 0.16278483 -0.0017622814 -0.044899233 0.47878402 -0.04782132 0.20823622 0.13936232 0.13522509 0.5066868 -0.6832403 -0.17762949 0.2744781 0.10717388 -0.57189566 -0.08009946
23 0.25544494 0.84764344 -0.08052728 0.22528417 -0.42038876 0.73193324 -0.37287793 0.15293173 0.322287 -0.058055006 0.08115268 -0.30877745 -0.6818976 0.97761035 -0.05331 -0.46786228 -0.43343538
3 0.09952947 -0.54483 0.08325348 1.4137062 -0.48271528 0.39277467 -0.19068958 -0.28626266 0.6730093 0.03347235 0.50238943 -0.07120439 0.057592206 0.09730587 -0.13872503 0.26708463 0.48318118
5 0.51528794 -0.32813656 0.55844617 1.1981757 0.8276111 -0.080887906 -0.63968664 0.1004402 0.029546963 0.31556433 0.5700137 -0.36557356 0.6061869 0.5417091 0.5393162 -0.8369457 0.75265837
13 -0.37820882 0.012647965 0.096626855 0.95667225 -0.15245499 0.36894038 -0.07568248 0.19400495 0.2022372 -0.4390243 0.49065858 -0.27847114 0.11805743 0.088997886 0.01467257 0.07713416 0.10237092
8 -0.0017066419 0.4333337 0.646716 0.6308008 -0.3213882 -0.024539746 -0.41017202 -0.34177437 0.24295948 -0.19240656 0.09049599 -0.29901668 -0.13161716 0.105082214 0.118553266 -0.08581706 -0.43049607
6 0.5322484 -0.34157407 0.52007014 1.1835872 0.6198327 0.3089694 -0.8699349 -0.09141243 -0.05463849 0.4799282 0.06190205 -0.4221897 0.9676601 0.37442333 0.21914351 -0.78824174 0.6743705
25 0.88392717 0.71103346 -0.35526142 -0.091592796 -0.14049432 0.5386844 -0.14197217 -0.26222816 -0.081670254 -0.08165554 0.552468 -0.76211005 -0.052643154 0.9795909 -0.6992475 -0.54554415 -0.20213877
29 -0.11811142 0.47602665 -0.3217813 0.5045937 -0.8501129 0.7427594 -0.22522192 -0.5175925 -0.06949877 0.29653972 -0.17438881 -0.9403359 -0.5855515 0.65634274 -0.45361596 -0.6490202 -0.7053756
27 0.567594 0.700451 -0.045188952 0.4566306 -0.33919293 0.76235855 0.3735575 0.01810084 0.44484958 -0.400506 0.2922408 -0.27458262 -0.078699164 0.30214652 -0.71305984 -0.67496747 -0.4308493
7 0.010205198 -0.039948445 0.17309341 1.1638381 -0.14050026 0.2287368 -0.2568407 0.07268878 0.5093593 -0.66679037 0.5710082 -0.27348745 0.2936696 -0.08517503 0.2547108 0.20115449 0.12081955
30 -0.21037923 0.33830792 -0.008268326 0.8738482 0.013828153 0.21633027 -0.47494268 -0.1461549 -0.32847738 -0.67389053 -0.17436932 -0.45366067 -0.69242376 -0.08952067 -0.19658253 -0.29176858 -0.17912853
10 0.0966592 -0.35194898 0.7789347 0.81035745 0.5842739 0.674057 -0.4075923 0.1345803 -0.018104544 0.50108206 0.019256413 -0.86925423 0.8159254 0.5252688 0.13266411 -0.44003192 0.87896276
4 0.09215515 -0.3771353 0.9046053 0.8978927 0.69026315 0.21050434 -0.2108034 -0.1874156 0.087113634 0.30222592 0.5532911 -0.475896 0.3184873 0.7650085 0.5392574 -0.38157982 0.8330689
16 0.8410296 -0.7092647 0.7361587 1.2596912 0.7100376 -0.032676585 -0.54818726 0.09462254 -0.112268604 -0.13788532 0.0008317243 -0.39984804 1.0830284 0.9845489 0.004350189 -1.0229348 0.6994572
15 -0.22443081 0.8107477 0.2715838 0.4989203 -0.2788068 0.20739189 -0.37708262 -0.15705536 0.08294993 -0.029121542 0.28982383 -0.53206515 -0.8315989 0.24728878 -0.62535214 -0.38677123 -0.30513403
24 0.81679463 0.90554506 -0.3310692 0.13168459 -0.4131624 0.9341053 -0.20156793 0.20607856 0.04305003 -0.12853459 0.6507974 -0.12876084 -0.507153 1.1106933 -0.37964076 -0.20861855 0.27743733
26 -0.4344467 0.40965316 -0.32020697 0.45188165 -0.78092754 0.31159556 -0.6024077 0.49893996 0.12763683 0.006998614 -0.19596751 -0.73419696 -0.28369334 0.8422768 -0.28645152 -0.9732793 -0.88285565
28 0.34468484 0.57039183 -0.03378631 0.5348441 -0.060847796 0.43385443 -0.4572124 -0.07527018 -0.021827836 -0.21239753 0.82185024 -0.010265224 -0.062374618 0.2623585 -0.46697202 0.12257446 -0.3634592
22 -0.303681 0.9551548 0.28106847 0.56702036 -0.37830877 -0.01039039 -0.3650214 0.005838779 0.034582645 -0.008011082 0.28749767 -0.6135682 -0.6574108 0.24894707 -0.52171654 -0.40413132 -0.37627035
19 -0.3595468 0.13480084 0.03498553 1.0351458 -0.25571004 0.34926432 -0.027971532 -0.04098364 -0.37665305 -0.03762889 0.3037517 -0.36924127 0.285142 0.089528985 0.31119138 -0.051262323 0.27226374
14 -0.31718856 0.7692557 0.36766383 0.35222656 -0.32237086 0.14872757 -0.4361693 -0.33989784 0.063179344 -0.14720346 0.2675591 -0.6041182 -0.7209282 0.37400332 -0.34003502 -0.61304194 -0.3620116
12 -0.33237645 -0.35149264 -0.2658801 1.1948181 0.0072076777 0.33005247 -0.5182346 0.5593055 0.91636306 -0.32049996 0.66986614 -0.47950146 0.4866051 0.2786652 -0.00054928043 0.3083818 0.4746141
21 0.08366394 -0.026396872 0.23372085 1.185591 -0.11122847 0.3148867 -0.11072284 -0.2170295 0.025516246 -0.5349825 0.17155588 -0.4561677 0.2921542 -0.10271095 0.5820289 0.00410211 0.60979134
20 -0.3404425 0.6281516 0.3136715 0.31300783 -0.11887398 0.0700418 -0.57883495 -0.40508977 -0.08348674 -0.27898306 0.3377789 -0.6687455 -0.8667511 0.3716244 -0.44741115 -0.65492684 -0.3856439
11 0.19779685 0.06650168 0.04344227 0.87978375 0.074722655 0.037932158 -0.29308528 -0.3936967 0.012799421 -0.091331676 0.35309905 -0.6948551 0.7484598 0.4589549 0.4067265 0.17902632 0.6325025
18 -0.19456151 0.90860003 0.11862739 0.57621735 -0.20755515 0.122681126 -0.33021322 -0.0018099864 0.17575194 0.03902641 0.28737402 -0.50403804 -0.7338779 0.31120056 -0.6079058 -0.3186285 -0.28862664
9 -0.25695375 0.6217909 0.30971682 0.88654596 -0.37821132 0.29535612 -0.14417522 0.1319391 0.068146564 -0.18031561 0.23290034 0.057547 -0.13802259 0.08312349 -0.62163466 -0.27906808 -0.26503482
17 0.0011358253 0.047295526 0.076655075 1.1673304 -0.0035531763 0.12829095 -0.10867448 -0.3007862 -0.12053876 -0.27142718 0.3573236 -0.45347193 0.3377382 0.16629948 0.5307095 0.10132399 0.55341035
